
\data\
ngram 1=6
ngram 2=8
ngram 3=4

\1-grams:
-0.7782 </s> -0.3010
-0.7782 <s> -0.2218
-2.0569 你好 -0.2218
-2.0569 不许 -0.2218
-2.0569 开始 -0.2218
-2.0569 老贾 -0.2218

\2-grams:
-1.5798 <s> 你好 0.0000
-1.5798 <s> 不许 0.0000
-1.5798 <s> 开始 0.0000
-1.5798 <s> 老贾 0.0000
-0.3010 你好 </s> -0.3010
-0.3010 不许 </s> -0.3010
-0.3010 开始 </s> -0.3010
-0.3010 老贾 </s> -0.3010

\3-grams:
-0.3010 <s> 你好 </s>
-0.3010 <s> 不许 </s>
-0.3010 <s> 开始 </s>
-0.3010 <s> 老贾 </s>

\end\
